<?xml version="1.0"?>
<opencv_storage>
<cascade>
  <stageType>BOOST</stageType>
  <featureType>HAAR</featureType>
  <height>24</height>
  <width>24</width>
  <stageParams>
    <boostType>GAB</boostType>
    <minHitRate>9.9500000476837158e-01</minHitRate>
    <maxFalseAlarm>5.0000000000000000e-01</maxFalseAlarm>
    <weightTrimRate>9.4999998807907104e-01</weightTrimRate>
    <maxDepth>1</maxDepth>
    <maxWeakCount>100</maxWeakCount></stageParams>
  <featureParams>
    <maxCatCount>0</maxCatCount>
    <featSize>1</featSize>
    <mode>BASIC</mode></featureParams>
  <stageNum>20</stageNum>
  <stages>
    <!-- stage 0 -->
    <_>
      <maxWeakCount>6</maxWeakCount>
      <stageThreshold>-1.9155788421630859e+00</stageThreshold>
      <weakClassifiers>
        <_>
          <internalNodes>
            0 -1 115 4.0698252618312836e-02</internalNodes>
          <leafValues>
            -8.9025545120239258e-01 8.1818181276321411e-01</leafValues></_>
        <_>
          <internalNodes>
            0 -1 45 9.8712995648384094e-02</internalNodes>
          <leafValues>
            -5.9286683797836304e-01 5.1701790094375610e-01</leafValues></_>
        <_>
          <internalNodes>
            0 -1 107 -1.2194281443953514e-03</internalNodes>
          <leafValues>
            -9.0104186534881592e-01 1.3418844342231750e-01</leafValues></_>
        <_>
          <internalNodes>
            0 -1 124 -1.2701989617198706e-03</internalNodes>
          <leafValues>
            -7.5389271974563599e-01 1.6852526366710663e-01</leafValues></_>
        <_>
          <internalNodes>
            0 -1 143 -9.5128506654873490e-04</internalNodes>
          <leafValues>
            -8.6078661680221558e-01 1.4925514161586761e-01</leafValues></_>
        <_>
          <internalNodes>
            0 -1 4 2.1625193767249584e-03</internalNodes>
          <leafValues>
            1.2561638653278351e-01 -1.</leafValues></_></weakClassifiers></_>
    <!-- stage 1 -->
    <_>
      <maxWeakCount>6</maxWeakCount>
      <stageThreshold>-1.5467661619186401e+00</stageThreshold>
      <weakClassifiers>
        <_>
          <internalNodes>
            0 -1 48 -1.1898199468851089e-01</internalNodes>
          <leafValues>
            6.3636362552642822e-01 -8.8836330175399780e-01</leafValues></_>
        <_>
          <internalNodes>
            0 -1 2 6.1178416013717651e-02</internalNodes>
          <leafValues>
            -5.9948372840881348e-01 3.1958332657814026e-01</leafValues></_>
        <_>
          <internalNodes>
            0 -1 27 8.5078761912882328e-04</internalNodes>
          <leafValues>
            9.2901349067687988e-02 -9.4871139526367188e-01</leafValues></_>
        <_>
          <internalNodes>
            0 -1 104 9.3814620049670339e-04</internalNodes>
          <leafValues>
            9.7478456795215607e-02 -8.3588039875030518e-01</leafValues></_>
        <_>
          <internalNodes>
            0 -1 39 2.4418484419584274e-02</internalNodes>
          <leafValues>
            -2.8206813335418701e-01 4.7118279337882996e-01</leafValues></_>
        <_>
          <internalNodes>
            0 -1 34 -8.6550362175330520e-04</internalNodes>
          <leafValues>
            -7.2048175334930420e-01 2.3613230884075165e-01</leafValues></_></weakClassifiers></_>
    <!-- stage 2 -->
    <_>
      <maxWeakCount>6</maxWeakCount>
      <stageThreshold>-1.8449962139129639e+00</stageThreshold>
      <weakClassifiers>
        <_>
          <internalNodes>
            0 -1 91 2.5476217269897461e-01</internalNodes>
          <leafValues>
            -8.8668555021286011e-01 7.7777779102325439e-01</leafValues></_>
        <_>
          <internalNodes>
            0 -1 119 -1.8996411934494972e-02</internalNodes>
          <leafValues>
            9.8997429013252258e-03 -6.8409258127212524e-01</leafValues></_>
        <_>
          <internalNodes>
            0 -1 135 -5.9770648367702961e-03</internalNodes>
          <leafValues>
            2.9962190985679626e-01 -4.5299467444419861e-01</leafValues></_>
        <_>
          <internalNodes>
            0 -1 76 -1.2030837824568152e-03</internalNodes>
          <leafValues>
            3.3785536885261536e-01 -4.4922485947608948e-01</leafValues></_>
        <_>
          <internalNodes>
            0 -1 57 5.4061529226601124e-04</internalNodes>
          <leafValues>
            2.0515379309654236e-01 -6.1586606502532959e-01</leafValues></_>
        <_>
          <internalNodes>
            0 -1 84 1.7448138678446412e-03</internalNodes>
          <leafValues>
            -2.6945394277572632e-01 4.9125087261199951e-01</leafValues></_></weakClassifiers></_>
    <!-- stage 3 -->
    <_>
      <maxWeakCount>5</maxWeakCount>
      <stageThreshold>-1.7975527048110962e+00</stageThreshold>
      <weakClassifiers>
        <_>
          <internalNodes>
            0 -1 38 1.1462597548961639e-01</internalNodes>
          <leafValues>
            -9.0192306041717529e-01 2.1428571641445160e-01</leafValues></_>
        <_>
          <internalNodes>
            0 -1 72 -7.1200005710124969e-02</internalNodes>
          <leafValues>
            6.6047805547714233e-01 -6.3068401813507080e-01</leafValues></_>
        <_>
          <internalNodes>
            0 -1 94 -1.4122813940048218e-02</internalNodes>
          <leafValues>
            6.0362541675567627e-01 -4.2922681570053101e-01</leafValues></_>
        <_>
          <internalNodes>
            0 -1 23 2.3028582334518433e-02</internalNodes>
          <leafValues>
            -4.3318045139312744e-01 4.5264345407485962e-01</leafValues></_>
        <_>
          <internalNodes>
            0 -1 40 -2.2805545479059219e-02</internalNodes>
          <leafValues>
            6.5905618667602539e-01 -2.8836226463317871e-01</leafValues></_></weakClassifiers></_>
    <!-- stage 4 -->
    <_>
      <maxWeakCount>7</maxWeakCount>
      <stageThreshold>-1.7308518886566162e+00</stageThreshold>
      <weakClassifiers>
        <_>
          <internalNodes>
            0 -1 0 -4.9273353815078735e-01</internalNodes>
          <leafValues>
            1. -8.8501411676406860e-01</leafValues></_>
        <_>
          <internalNodes>
            0 -1 101 -4.6975780278444290e-03</internalNodes>
          <leafValues>
            1.5608415007591248e-01 -6.3912498950958252e-01</leafValues></_>
        <_>
          <internalNodes>
            0 -1 3 4.1560694575309753e-02</internalNodes>
          <leafValues>
            -4.5173126459121704e-01 4.1510045528411865e-01</leafValues></_>
        <_>
          <internalNodes>
            0 -1 9 -3.0893461778759956e-02</internalNodes>
          <leafValues>
            7.2851145267486572e-01 -2.0380838215351105e-01</leafValues></_>
        <_>
          <internalNodes>
            0 -1 137 -2.8645122074522078e-04</internalNodes>
          <leafValues>
            3.4311413764953613e-01 -4.0474227070808411e-01</leafValues></_>
        <_>
          <internalNodes>
            0 -1 51 2.8530727140605450e-03</internalNodes>
          <leafValues>
            -2.6958027482032776e-01 5.0486630201339722e-01</leafValues></_>
        <_>
          <internalNodes>
            0 -1 26 2.6700762100517750e-03</internalNodes>
          <leafValues>
            -3.4190860390663147e-01 3.7529298663139343e-01</leafValues></_></weakClassifiers></_>
    <!-- stage 5 -->
    <_>
      <maxWeakCount>7</maxWeakCount>
      <stageThreshold>-1.5411069393157959e+00</stageThreshold>
      <weakClassifiers>
        <_>
          <internalNodes>
            0 -1 15 3.9110863581299782e-03</internalNodes>
          <leafValues>
            -8.8146752119064331e-01 1.</leafValues></_>
        <_>
          <internalNodes>
            0 -1 93 2.2681341506540775e-03</internalNodes>
          <leafValues>
            -5.3043621778488159e-01 6.8472802639007568e-01</leafValues></_>
        <_>
          <internalNodes>
            0 -1 139 5.7600704021751881e-03</internalNodes>
          <leafValues>
            1.1499248445034027e-01 -7.9841756820678711e-01</leafValues></_>
        <_>
          <internalNodes>
            0 -1 50 -1.2369719115667976e-05</internalNodes>
          <leafValues>
            2.9829689860343933e-01 -3.8226017355918884e-01</leafValues></_>
        <_>
          <internalNodes>
            0 -1 131 9.4102643197402358e-04</internalNodes>
          <leafValues>
            2.0259916782379150e-01 -6.3817203044891357e-01</leafValues></_>
        <_>
          <internalNodes>
            0 -1 117 1.4015005945111625e-05</internalNodes>
          <leafValues>
            -4.2423811554908752e-01 2.9971623420715332e-01</leafValues></_>
        <_>
          <internalNodes>
            0 -1 112 8.4897817578166723e-04</internalNodes>
          <leafValues>
            -2.0403674244880676e-01 5.7048672437667847e-01</leafValues></_></weakClassifiers></_>
    <!-- stage 6 -->
    <_>
      <maxWeakCount>7</maxWeakCount>
      <stageThreshold>-1.8571895360946655e+00</stageThreshold>
      <weakClassifiers>
        <_>
          <internalNodes>
            0 -1 108 -2.4532226379960775e-03</internalNodes>
          <leafValues>
            6.9230771064758301e-01 -8.9194315671920776e-01</leafValues></_>
        <_>
          <internalNodes>
            0 -1 79 9.1328611597418785e-04</internalNodes>
          <leafValues>
            -6.3898682594299316e-01 3.7533310055732727e-01</leafValues></_>
        <_>
          <internalNodes>
            0 -1 128 -7.9757935600355268e-04</internalNodes>
          <leafValues>
            5.3699034452438354e-01 -3.3379262685775757e-01</leafValues></_>
        <_>
          <internalNodes>
            0 -1 6 9.3811901751905680e-04</internalNodes>
          <leafValues>
            -1.7951875925064087e-01 7.7801978588104248e-01</leafValues></_>
        <_>
          <internalNodes>
            0 -1 111 -1.3715256936848164e-03</internalNodes>
          <leafValues>
            8.2828468084335327e-01 -1.5264862775802612e-01</leafValues></_>
        <_>
          <internalNodes>
            0 -1 103 2.0206295885145664e-03</internalNodes>
          <leafValues>
            2.5435006618499756e-01 -6.3722687959671021e-01</leafValues></_>
        <_>
          <internalNodes>
            0 -1 95 -9.5132581191137433e-04</internalNodes>
          <leafValues>
            -6.0732352733612061e-01 2.2821851074695587e-01</leafValues></_></weakClassifiers></_>
    <!-- stage 7 -->
    <_>
      <maxWeakCount>6</maxWeakCount>
      <stageThreshold>-1.7557585239410400e+00</stageThreshold>
      <weakClassifiers>
        <_>
          <internalNodes>
            0 -1 123 -1.6050998819991946e-03</internalNodes>
          <leafValues>
            8.8235294818878174e-01 -9.0104663372039795e-01</leafValues></_>
        <_>
          <internalNodes>
            0 -1 44 -9.8869949579238892e-04</internalNodes>
          <leafValues>
            8.4404337406158447e-01 -6.4692467451095581e-01</leafValues></_>
        <_>
          <internalNodes>
            0 -1 100 9.1083586448803544e-04</internalNodes>
          <leafValues>
            -3.6476173996925354e-01 7.4821335077285767e-01</leafValues></_>
        <_>
          <internalNodes>
            0 -1 114 -5.3214968647807837e-04</internalNodes>
          <leafValues>
            6.3186442852020264e-01 -3.4514918923377991e-01</leafValues></_>
        <_>
          <internalNodes>
            0 -1 82 3.0841142870485783e-03</internalNodes>
          <leafValues>
            3.0842366814613342e-01 -6.9829404354095459e-01</leafValues></_>
        <_>
          <internalNodes>
            0 -1 99 7.8637793194502592e-04</internalNodes>
          <leafValues>
            -2.9055020213127136e-01 7.5258260965347290e-01</leafValues></_></weakClassifiers></_>
    <!-- stage 8 -->
    <_>
      <maxWeakCount>9</maxWeakCount>
      <stageThreshold>-2.0163674354553223e+00</stageThreshold>
      <weakClassifiers>
        <_>
          <internalNodes>
            0 -1 70 -1.6724359989166260e-01</internalNodes>
          <leafValues>
            1. -8.8679248094558716e-01</leafValues></_>
        <_>
          <internalNodes>
            0 -1 49 1.2031887471675873e-01</internalNodes>
          <leafValues>
            -5.5866378545761108e-01 5.5373078584671021e-01</leafValues></_>
        <_>
          <internalNodes>
            0 -1 92 -1.2603504583239555e-03</internalNodes>
          <leafValues>
            2.8397545218467712e-01 -4.1351577639579773e-01</leafValues></_>
        <_>
          <internalNodes>
            0 -1 66 1.3552906239056028e-05</internalNodes>
          <leafValues>
            -3.8057982921600342e-01 3.1266614794731140e-01</leafValues></_>
        <_>
          <internalNodes>
            0 -1 24 4.5434623025357723e-03</internalNodes>
          <leafValues>
            1.4254109561443329e-01 -7.3555064201354980e-01</leafValues></_>
        <_>
          <internalNodes>
            0 -1 138 -2.9722750186920166e-03</internalNodes>
          <leafValues>
            -6.6522574424743652e-01 1.6423089802265167e-01</leafValues></_>
        <_>
          <internalNodes>
            0 -1 142 -3.5951314202975482e-05</internalNodes>
          <leafValues>
            3.4208893775939941e-01 -3.2733577489852905e-01</leafValues></_>
        <_>
          <internalNodes>
            0 -1 71 -1.9542040303349495e-02</internalNodes>
          <leafValues>
            -8.4066724777221680e-01 1.4486752450466156e-01</leafValues></_>
        <_>
          <internalNodes>
            0 -1 61 -8.5253883153200150e-03</internalNodes>
          <leafValues>
            -5.9436523914337158e-01 1.5702122449874878e-01</leafValues></_></weakClassifiers></_>
    <!-- stage 9 -->
    <_>
      <maxWeakCount>7</maxWeakCount>
      <stageThreshold>-1.6330001354217529e+00</stageThreshold>
      <weakClassifiers>
        <_>
          <internalNodes>
            0 -1 90 -5.4084345698356628e-02</internalNodes>
          <leafValues>
            7.1428573131561279e-01 -8.8312911987304688e-01</leafValues></_>
        <_>
          <internalNodes>
            0 -1 96 2.8724309056997299e-02</internalNodes>
          <leafValues>
            -5.9852308034896851e-01 -2.9401829466223717e-02</leafValues></_>
        <_>
          <internalNodes>
            0 -1 22 2.1458351984620094e-03</internalNodes>
          <leafValues>
            1.3481888175010681e-01 -5.6233131885528564e-01</leafValues></_>
        <_>
          <internalNodes>
            0 -1 127 1.5447742771357298e-03</internalNodes>
          <leafValues>
            1.0969994962215424e-01 -8.1011080741882324e-01</leafValues></_>
        <_>
          <internalNodes>
            0 -1 5 3.0457269400358200e-02</internalNodes>
          <leafValues>
            -1.8267239630222321e-01 5.7041889429092407e-01</leafValues></_>
        <_>
          <internalNodes>
            0 -1 122 -2.6384340599179268e-03</internalNodes>
          <leafValues>
            -5.9595036506652832e-01 2.0951001346111298e-01</leafValues></_>
        <_>
          <internalNodes>
            0 -1 47 -1.9112184643745422e-01</internalNodes>
          <leafValues>
            6.3157600164413452e-01 -1.8636521697044373e-01</leafValues></_></weakClassifiers></_>
    <!-- stage 10 -->
    <_>
      <maxWeakCount>6</maxWeakCount>
      <stageThreshold>-1.0979024171829224e+00</stageThreshold>
      <weakClassifiers>
        <_>
          <internalNodes>
            0 -1 65 -8.7391763925552368e-02</internalNodes>
          <leafValues>
            1. -8.8323915004730225e-01</leafValues></_>
        <_>
          <internalNodes>
            0 -1 1 -2.9366321861743927e-02</internalNodes>
          <leafValues>
            5.0792223215103149e-01 -5.3284788131713867e-01</leafValues></_>
        <_>
          <internalNodes>
            0 -1 140 -4.7833155840635300e-03</internalNodes>
          <leafValues>
            -8.2993727922439575e-01 8.2699581980705261e-02</leafValues></_>
        <_>
          <internalNodes>
            0 -1 12 -3.5552330315113068e-02</internalNodes>
          <leafValues>
            -9.7311699390411377e-01 6.8616561591625214e-02</leafValues></_>
        <_>
          <internalNodes>
            0 -1 30 7.3629440739750862e-03</internalNodes>
          <leafValues>
            1.0217060148715973e-01 -9.3740469217300415e-01</leafValues></_>
        <_>
          <internalNodes>
            0 -1 43 7.3286527767777443e-03</internalNodes>
          <leafValues>
            6.4697824418544769e-02 -9.7190856933593750e-01</leafValues></_></weakClassifiers></_>
    <!-- stage 11 -->
    <_>
      <maxWeakCount>8</maxWeakCount>
      <stageThreshold>-2.1260783672332764e+00</stageThreshold>
      <weakClassifiers>
        <_>
          <internalNodes>
            0 -1 17 1.4088284224271774e-02</internalNodes>
          <leafValues>
            -8.8135594129562378e-01 6.6666668653488159e-01</leafValues></_>
        <_>
          <internalNodes>
            0 -1 33 -5.1859870553016663e-02</internalNodes>
          <leafValues>
            3.1162190437316895e-01 -5.5253493785858154e-01</leafValues></_>
        <_>
          <internalNodes>
            0 -1 63 1.2445454485714436e-03</internalNodes>
          <leafValues>
            -4.1131606698036194e-01 2.3368863761425018e-01</leafValues></_>
        <_>
          <internalNodes>
            0 -1 46 1.3552906239056028e-05</internalNodes>
          <leafValues>
            -3.5497507452964783e-01 2.4669139087200165e-01</leafValues></_>
        <_>
          <internalNodes>
            0 -1 42 4.5786174014210701e-03</internalNodes>
          <leafValues>
            1.7802827060222626e-01 -5.2210772037506104e-01</leafValues></_>
        <_>
          <internalNodes>
            0 -1 68 -6.8443547934293747e-03</internalNodes>
          <leafValues>
            4.3396022915840149e-01 -2.3307952284812927e-01</leafValues></_>
        <_>
          <internalNodes>
            0 -1 121 1.0732084047049284e-03</internalNodes>
          <leafValues>
            -2.6007676124572754e-01 3.7619113922119141e-01</leafValues></_>
        <_>
          <internalNodes>
            0 -1 86 -8.7432062719017267e-04</internalNodes>
          <leafValues>
            4.0316438674926758e-01 -2.7780815958976746e-01</leafValues></_></weakClassifiers></_>
    <!-- stage 12 -->
    <_>
      <maxWeakCount>11</maxWeakCount>
      <stageThreshold>-1.6227691173553467e+00</stageThreshold>
      <weakClassifiers>
        <_>
          <internalNodes>
            0 -1 32 4.5441305637359619e-01</internalNodes>
          <leafValues>
            -8.7969923019409180e-01 1.</leafValues></_>
        <_>
          <internalNodes>
            0 -1 136 6.3483744859695435e-02</internalNodes>
          <leafValues>
            -5.0025314092636108e-01 7.4283468723297119e-01</leafValues></_>
        <_>
          <internalNodes>
            0 -1 7 -1.2562229298055172e-02</internalNodes>
          <leafValues>
            -6.3084143400192261e-01 1.3048791885375977e-01</leafValues></_>
        <_>
          <internalNodes>
            0 -1 52 1.6779405996203423e-02</internalNodes>
          <leafValues>
            7.1915522217750549e-02 -1.</leafValues></_>
        <_>
          <internalNodes>
            0 -1 29 -2.0553415641188622e-02</internalNodes>
          <leafValues>
            -6.5026086568832397e-01 1.5029783546924591e-01</leafValues></_>
        <_>
          <internalNodes>
            0 -1 147 8.7202119175344706e-04</internalNodes>
          <leafValues>
            2.0711664855480194e-01 -4.9248820543289185e-01</leafValues></_>
        <_>
          <internalNodes>
            0 -1 132 -1.4262144686654210e-03</internalNodes>
          <leafValues>
            2.8006178140640259e-01 -3.4789544343948364e-01</leafValues></_>
        <_>
          <internalNodes>
            0 -1 145 1.6736156248953193e-04</internalNodes>
          <leafValues>
            2.1837030351161957e-01 -5.0872504711151123e-01</leafValues></_>
        <_>
          <internalNodes>
            0 -1 83 -7.5371749699115753e-04</internalNodes>
          <leafValues>
            3.3498129248619080e-01 -2.8340238332748413e-01</leafValues></_>
        <_>
          <internalNodes>
            0 -1 118 -1.0345997288823128e-03</internalNodes>
          <leafValues>
            -4.6478474140167236e-01 2.1073529124259949e-01</leafValues></_>
        <_>
          <internalNodes>
            0 -1 14 -6.4545618370175362e-03</internalNodes>
          <leafValues>
            2.9925444722175598e-01 -3.2185754179954529e-01</leafValues></_></weakClassifiers></_>
    <!-- stage 13 -->
    <_>
      <maxWeakCount>7</maxWeakCount>
      <stageThreshold>-1.5713931322097778e+00</stageThreshold>
      <weakClassifiers>
        <_>
          <internalNodes>
            0 -1 109 4.4152818620204926e-02</internalNodes>
          <leafValues>
            -8.7969923019409180e-01 1.</leafValues></_>
        <_>
          <internalNodes>
            0 -1 97 -1.7723999917507172e-02</internalNodes>
          <leafValues>
            6.1159348487854004e-01 -5.1729321479797363e-01</leafValues></_>
        <_>
          <internalNodes>
            0 -1 62 -8.3424691110849380e-03</internalNodes>
          <leafValues>
            -4.7824555635452271e-01 1.9429332017898560e-01</leafValues></_>
        <_>
          <internalNodes>
            0 -1 60 1.2408191338181496e-02</internalNodes>
          <leafValues>
            -2.1203674376010895e-01 4.9562913179397583e-01</leafValues></_>
        <_>
          <internalNodes>
            0 -1 58 -1.7849181313067675e-03</internalNodes>
          <leafValues>
            -5.9137469530105591e-01 1.8630717694759369e-01</leafValues></_>
        <_>
          <internalNodes>
            0 -1 36 -3.5474881529808044e-02</internalNodes>
          <leafValues>
            -8.7078839540481567e-01 1.1354102939367294e-01</leafValues></_>
        <_>
          <internalNodes>
            0 -1 77 -1.1833184398710728e-03</internalNodes>
          <leafValues>
            3.2117643952369690e-01 -3.0927962064743042e-01</leafValues></_></weakClassifiers></_>
    <!-- stage 14 -->
    <_>
      <maxWeakCount>7</maxWeakCount>
      <stageThreshold>-1.6794950962066650e+00</stageThreshold>
      <weakClassifiers>
        <_>
          <internalNodes>
            0 -1 134 8.8248118758201599e-02</internalNodes>
          <leafValues>
            -8.8135594129562378e-01 6.6666668653488159e-01</leafValues></_>
        <_>
          <internalNodes>
            0 -1 16 5.2786290325457230e-05</internalNodes>
          <leafValues>
            -7.0113193988800049e-01 -2.3551023006439209e-01</leafValues></_>
        <_>
          <internalNodes>
            0 -1 75 -1.4806270599365234e-02</internalNodes>
          <leafValues>
            1.9164086878299713e-01 -3.7161442637443542e-01</leafValues></_>
        <_>
          <internalNodes>
            0 -1 35 -7.0572448894381523e-03</internalNodes>
          <leafValues>
            4.4323030114173889e-01 -2.0264129340648651e-01</leafValues></_>
        <_>
          <internalNodes>
            0 -1 144 -3.3848288003355265e-03</internalNodes>
          <leafValues>
            -9.2603504657745361e-01 1.0936919599771500e-01</leafValues></_>
        <_>
          <internalNodes>
            0 -1 28 -1.8653616280062124e-05</internalNodes>
          <leafValues>
            2.1163134276866913e-01 -4.2531469464302063e-01</leafValues></_>
        <_>
          <internalNodes>
            0 -1 120 1.4186459593474865e-03</internalNodes>
          <leafValues>
            1.5624795854091644e-01 -6.6253465414047241e-01</leafValues></_></weakClassifiers></_>
    <!-- stage 15 -->
    <_>
      <maxWeakCount>10</maxWeakCount>
      <stageThreshold>-1.6723225116729736e+00</stageThreshold>
      <weakClassifiers>
        <_>
          <internalNodes>
            0 -1 54 9.0920832008123398e-03</internalNodes>
          <leafValues>
            -8.7958610057830811e-01 6.0000002384185791e-01</leafValues></_>
        <_>
          <internalNodes>
            0 -1 81 6.9933440536260605e-03</internalNodes>
          <leafValues>
            -5.4558265209197998e-01 2.6796221733093262e-01</leafValues></_>
        <_>
          <internalNodes>
            0 -1 64 1.3341000303626060e-03</internalNodes>
          <leafValues>
            7.4716724455356598e-02 -6.6188526153564453e-01</leafValues></_>
        <_>
          <internalNodes>
            0 -1 141 1.4228219515644014e-04</internalNodes>
          <leafValues>
            -3.3551457524299622e-01 2.4500006437301636e-01</leafValues></_>
        <_>
          <internalNodes>
            0 -1 130 -8.1053085159510374e-04</internalNodes>
          <leafValues>
            4.0741476416587830e-01 -1.8721896409988403e-01</leafValues></_>
        <_>
          <internalNodes>
            0 -1 146 -3.9374455809593201e-03</internalNodes>
          <leafValues>
            -8.5284352302551270e-01 1.0536242276430130e-01</leafValues></_>
        <_>
          <internalNodes>
            0 -1 74 1.8114293925464153e-04</internalNodes>
          <leafValues>
            -2.9779735207557678e-01 2.5690484046936035e-01</leafValues></_>
        <_>
          <internalNodes>
            0 -1 106 6.7813387140631676e-03</internalNodes>
          <leafValues>
            -2.0339228212833405e-01 4.2642393708229065e-01</leafValues></_>
        <_>
          <internalNodes>
            0 -1 129 6.0834223404526711e-04</internalNodes>
          <leafValues>
            -3.3092918992042542e-01 2.7755063772201538e-01</leafValues></_>
        <_>
          <internalNodes>
            0 -1 69 -1.0830697137862444e-03</internalNodes>
          <leafValues>
            4.5953854918479919e-01 -2.0759740471839905e-01</leafValues></_></weakClassifiers></_>
    <!-- stage 16 -->
    <_>
      <maxWeakCount>7</maxWeakCount>
      <stageThreshold>-1.4927023649215698e+00</stageThreshold>
      <weakClassifiers>
        <_>
          <internalNodes>
            0 -1 98 2.2375911474227905e-02</internalNodes>
          <leafValues>
            -8.7969923019409180e-01 1.</leafValues></_>
        <_>
          <internalNodes>
            0 -1 37 -1.5094071626663208e-02</internalNodes>
          <leafValues>
            5.0529080629348755e-01 -5.2151656150817871e-01</leafValues></_>
        <_>
          <internalNodes>
            0 -1 126 -7.8401842620223761e-04</internalNodes>
          <leafValues>
            -5.7158821821212769e-01 1.0070209950208664e-01</leafValues></_>
        <_>
          <internalNodes>
            0 -1 110 8.5623692721128464e-03</internalNodes>
          <leafValues>
            1.7460121214389801e-01 -4.7549957036972046e-01</leafValues></_>
        <_>
          <internalNodes>
            0 -1 55 3.3388070762157440e-02</internalNodes>
          <leafValues>
            1.0092432051897049e-01 -9.5095312595367432e-01</leafValues></_>
        <_>
          <internalNodes>
            0 -1 116 4.5569855719804764e-03</internalNodes>
          <leafValues>
            -1.5856987237930298e-01 5.6496030092239380e-01</leafValues></_>
        <_>
          <internalNodes>
            0 -1 87 3.0740501824766397e-03</internalNodes>
          <leafValues>
            -2.3243044316768646e-01 3.6314600706100464e-01</leafValues></_></weakClassifiers></_>
    <!-- stage 17 -->
    <_>
      <maxWeakCount>10</maxWeakCount>
      <stageThreshold>-1.6918989419937134e+00</stageThreshold>
      <weakClassifiers>
        <_>
          <internalNodes>
            0 -1 105 -2.0229022949934006e-02</internalNodes>
          <leafValues>
            1. -8.7969923019409180e-01</leafValues></_>
        <_>
          <internalNodes>
            0 -1 81 7.4742832221090794e-03</internalNodes>
          <leafValues>
            -5.3928554058074951e-01 2.8012177348136902e-01</leafValues></_>
        <_>
          <internalNodes>
            0 -1 113 5.4915463551878929e-03</internalNodes>
          <leafValues>
            -2.4960148334503174e-01 3.8416805863380432e-01</leafValues></_>
        <_>
          <internalNodes>
            0 -1 41 -7.8630697680637240e-04</internalNodes>
          <leafValues>
            -7.2520792484283447e-01 1.1831983923912048e-01</leafValues></_>
        <_>
          <internalNodes>
            0 -1 53 -4.6909955563023686e-04</internalNodes>
          <leafValues>
            -5.8527892827987671e-01 1.5897023677825928e-01</leafValues></_>
        <_>
          <internalNodes>
            0 -1 31 -8.5919880075380206e-04</internalNodes>
          <leafValues>
            -8.8184654712677002e-01 8.8248968124389648e-02</leafValues></_>
        <_>
          <internalNodes>
            0 -1 20 8.0334886908531189e-02</internalNodes>
          <leafValues>
            -1.6257183253765106e-01 6.1672282218933105e-01</leafValues></_>
        <_>
          <internalNodes>
            0 -1 8 -1.4687009155750275e-02</internalNodes>
          <leafValues>
            5.6002026796340942e-01 -1.6377940773963928e-01</leafValues></_>
        <_>
          <internalNodes>
            0 -1 18 2.5215209461748600e-05</internalNodes>
          <leafValues>
            -3.6084777116775513e-01 2.6275521516799927e-01</leafValues></_>
        <_>
          <internalNodes>
            0 -1 25 5.1891324110329151e-03</internalNodes>
          <leafValues>
            -2.1477596461772919e-01 3.9131397008895874e-01</leafValues></_></weakClassifiers></_>
    <!-- stage 18 -->
    <_>
      <maxWeakCount>9</maxWeakCount>
      <stageThreshold>-1.8937044143676758e+00</stageThreshold>
      <weakClassifiers>
        <_>
          <internalNodes>
            0 -1 85 -1.5466746687889099e-01</internalNodes>
          <leafValues>
            1. -8.8146752119064331e-01</leafValues></_>
        <_>
          <internalNodes>
            0 -1 125 1.4342695474624634e-02</internalNodes>
          <leafValues>
            -5.5756926536560059e-01 6.6234432160854340e-02</leafValues></_>
        <_>
          <internalNodes>
            0 -1 21 2.7037772815674543e-04</internalNodes>
          <leafValues>
            -3.4503832459449768e-01 2.0310610532760620e-01</leafValues></_>
        <_>
          <internalNodes>
            0 -1 78 -1.4438303187489510e-03</internalNodes>
          <leafValues>
            -4.9219962954521179e-01 1.6586543619632721e-01</leafValues></_>
        <_>
          <internalNodes>
            0 -1 10 -3.8415966555476189e-03</internalNodes>
          <leafValues>
            -7.8635632991790771e-01 1.4707314968109131e-01</leafValues></_>
        <_>
          <internalNodes>
            0 -1 11 -2.2408980876207352e-02</internalNodes>
          <leafValues>
            7.1362519264221191e-01 -1.5443874895572662e-01</leafValues></_>
        <_>
          <internalNodes>
            0 -1 19 -5.9292279183864594e-03</internalNodes>
          <leafValues>
            -8.1225031614303589e-01 1.1555959284305573e-01</leafValues></_>
        <_>
          <internalNodes>
            0 -1 59 -1.7835628241300583e-02</internalNodes>
          <leafValues>
            4.1580829024314880e-01 -1.9548024237155914e-01</leafValues></_>
        <_>
          <internalNodes>
            0 -1 102 -2.3549331817775965e-03</internalNodes>
          <leafValues>
            -7.3081195354461670e-01 1.1579771339893341e-01</leafValues></_></weakClassifiers></_>
    <!-- stage 19 -->
    <_>
      <maxWeakCount>8</maxWeakCount>
      <stageThreshold>-1.6455690860748291e+00</stageThreshold>
      <weakClassifiers>
        <_>
          <internalNodes>
            0 -1 88 -1.9432127475738525e-02</internalNodes>
          <leafValues>
            7.1428573131561279e-01 -8.8312911987304688e-01</leafValues></_>
        <_>
          <internalNodes>
            0 -1 13 -3.0620787292718887e-03</internalNodes>
          <leafValues>
            -2.9401829466223717e-02 -5.9852308034896851e-01</leafValues></_>
        <_>
          <internalNodes>
            0 -1 56 5.4969407618045807e-02</internalNodes>
          <leafValues>
            -2.4973404407501221e-01 4.0089619159698486e-01</leafValues></_>
        <_>
          <internalNodes>
            0 -1 133 3.1499771284870803e-04</internalNodes>
          <leafValues>
            -3.9721110463142395e-01 2.4378909170627594e-01</leafValues></_>
        <_>
          <internalNodes>
            0 -1 89 -3.3149100840091705e-02</internalNodes>
          <leafValues>
            -7.1366202831268311e-01 1.2721109390258789e-01</leafValues></_>
        <_>
          <internalNodes>
            0 -1 67 9.3385024229064584e-05</internalNodes>
          <leafValues>
            -3.2908409833908081e-01 3.1684225797653198e-01</leafValues></_>
        <_>
          <internalNodes>
            0 -1 80 2.2049560211598873e-03</internalNodes>
          <leafValues>
            -2.2890898585319519e-01 4.9451324343681335e-01</leafValues></_>
        <_>
          <internalNodes>
            0 -1 73 2.4010017514228821e-03</internalNodes>
          <leafValues>
            -2.8561878204345703e-01 3.4468904137611389e-01</leafValues></_></weakClassifiers></_></stages>
  <features>
    <_>
      <rects>
        <_>
          0 0 24 22 -1.</_>
        <_>
          8 0 8 22 3.</_></rects>
      <tilted>0</tilted></_>
    <_>
      <rects>
        <_>
          0 0 19 3 -1.</_>
        <_>
          0 1 19 1 3.</_></rects>
      <tilted>0</tilted></_>
    <_>
      <rects>
        <_>
          0 1 8 15 -1.</_>
        <_>
          4 1 4 15 2.</_></rects>
      <tilted>0</tilted></_>
    <_>
      <rects>
        <_>
          0 1 12 16 -1.</_>
        <_>
          6 1 6 16 2.</_></rects>
      <tilted>0</tilted></_>
    <_>
      <rects>
        <_>
          0 3 1 3 -1.</_>
        <_>
          0 4 1 1 3.</_></rects>
      <tilted>0</tilted></_>
    <_>
      <rects>
        <_>
          0 4 8 6 -1.</_>
        <_>
          0 7 8 3 2.</_></rects>
      <tilted>0</tilted></_>
    <_>
      <rects>
        <_>
          0 5 2 2 -1.</_>
        <_>
          0 5 1 1 2.</_>
        <_>
          1 6 1 1 2.</_></rects>
      <tilted>0</tilted></_>
    <_>
      <rects>
        <_>
          0 6 18 2 -1.</_>
        <_>
          6 6 6 2 3.</_></rects>
      <tilted>0</tilted></_>
    <_>
      <rects>
        <_>
          0 7 8 3 -1.</_>
        <_>
          4 7 4 3 2.</_></rects>
      <tilted>0</tilted></_>
    <_>
      <rects>
        <_>
          0 7 8 9 -1.</_>
        <_>
          4 7 4 9 2.</_></rects>
      <tilted>0</tilted></_>
    <_>
      <rects>
        <_>
          0 10 4 4 -1.</_>
        <_>
          0 10 2 2 2.</_>
        <_>
          2 12 2 2 2.</_></rects>
      <tilted>0</tilted></_>
    <_>
      <rects>
        <_>
          0 12 12 2 -1.</_>
        <_>
          4 12 4 2 3.</_></rects>
      <tilted>0</tilted></_>
    <_>
      <rects>
        <_>
          0 15 20 6 -1.</_>
        <_>
          0 15 10 3 2.</_>
        <_>
          10 18 10 3 2.</_></rects>
      <tilted>0</tilted></_>
    <_>
      <rects>
        <_>
          0 18 8 1 -1.</_>
        <_>
          4 18 4 1 2.</_></rects>
      <tilted>0</tilted></_>
    <_>
      <rects>
        <_>
          0 19 20 4 -1.</_>
        <_>
          10 19 10 4 2.</_></rects>
      <tilted>0</tilted></_>
    <_>
      <rects>
        <_>
          0 21 2 2 -1.</_>
        <_>
          0 21 1 1 2.</_>
        <_>
          1 22 1 1 2.</_></rects>
      <tilted>0</tilted></_>
    <_>
      <rects>
        <_>
          0 22 2 2 -1.</_>
        <_>
          1 22 1 2 2.</_></rects>
      <tilted>0</tilted></_>
    <_>
      <rects>
        <_>
          0 22 3 2 -1.</_>
        <_>
          1 22 1 2 3.</_></rects>
      <tilted>0</tilted></_>
    <_>
      <rects>
        <_>
          0 23 2 1 -1.</_>
        <_>
          1 23 1 1 2.</_></rects>
      <tilted>0</tilted></_>
    <_>
      <rects>
        <_>
          1 0 6 4 -1.</_>
        <_>
          1 0 3 2 2.</_>
        <_>
          4 2 3 2 2.</_></rects>
      <tilted>0</tilted></_>
    <_>
      <rects>
        <_>
          1 1 18 9 -1.</_>
        <_>
          1 4 18 3 3.</_></rects>
      <tilted>0</tilted></_>
    <_>
      <rects>
        <_>
          1 2 2 7 -1.</_>
        <_>
          2 2 1 7 2.</_></rects>
      <tilted>0</tilted></_>
    <_>
      <rects>
        <_>
          1 5 15 2 -1.</_>
        <_>
          1 6 15 1 2.</_></rects>
      <tilted>0</tilted></_>
    <_>
      <rects>
        <_>
          1 6 22 8 -1.</_>
        <_>
          12 6 11 8 2.</_></rects>
      <tilted>0</tilted></_>
    <_>
      <rects>
        <_>
          1 7 2 13 -1.</_>
        <_>
          2 7 1 13 2.</_></rects>
      <tilted>0</tilted></_>
    <_>
      <rects>
        <_>
          2 1 3 20 -1.</_>
        <_>
          3 1 1 20 3.</_></rects>
      <tilted>0</tilted></_>
    <_>
      <rects>
        <_>
          2 2 2 20 -1.</_>
        <_>
          3 2 1 20 2.</_></rects>
      <tilted>0</tilted></_>
    <_>
      <rects>
        <_>
          2 4 2 2 -1.</_>
        <_>
          2 4 1 1 2.</_>
        <_>
          3 5 1 1 2.</_></rects>
      <tilted>0</tilted></_>
    <_>
      <rects>
        <_>
          2 5 2 3 -1.</_>
        <_>
          2 6 2 1 3.</_></rects>
      <tilted>0</tilted></_>
    <_>
      <rects>
        <_>
          2 12 19 4 -1.</_>
        <_>
          2 14 19 2 2.</_></rects>
      <tilted>0</tilted></_>
    <_>
      <rects>
        <_>
          2 15 4 6 -1.</_>
        <_>
          2 15 2 3 2.</_>
        <_>
          4 18 2 3 2.</_></rects>
      <tilted>0</tilted></_>
    <_>
      <rects>
        <_>
          3 1 2 1 -1.</_>
        <_>
          4 1 1 1 2.</_></rects>
      <tilted>0</tilted></_>
    <_>
      <rects>
        <_>
          3 1 15 18 -1.</_>
        <_>
          3 10 15 9 2.</_></rects>
      <tilted>0</tilted></_>
    <_>
      <rects>
        <_>
          3 1 17 4 -1.</_>
        <_>
          3 3 17 2 2.</_></rects>
      <tilted>0</tilted></_>
    <_>
      <rects>
        <_>
          3 4 1 3 -1.</_>
        <_>
          3 5 1 1 3.</_></rects>
      <tilted>0</tilted></_>
    <_>
      <rects>
        <_>
          3 16 8 4 -1.</_>
        <_>
          7 16 4 4 2.</_></rects>
      <tilted>0</tilted></_>
    <_>
      <rects>
        <_>
          3 17 12 7 -1.</_>
        <_>
          7 17 4 7 3.</_></rects>
      <tilted>0</tilted></_>
    <_>
      <rects>
        <_>
          4 0 6 3 -1.</_>
        <_>
          4 1 6 1 3.</_></rects>
      <tilted>0</tilted></_>
    <_>
      <rects>
        <_>
          4 1 18 10 -1.</_>
        <_>
          10 1 6 10 3.</_></rects>
      <tilted>0</tilted></_>
    <_>
      <rects>
        <_>
          4 2 6 10 -1.</_>
        <_>
          4 7 6 5 2.</_></rects>
      <tilted>0</tilted></_>
    <_>
      <rects>
        <_>
          4 3 10 12 -1.</_>
        <_>
          9 3 5 12 2.</_></rects>
      <tilted>0</tilted></_>
    <_>
      <rects>
        <_>
          4 4 1 2 -1.</_>
        <_>
          4 5 1 1 2.</_></rects>
      <tilted>0</tilted></_>
    <_>
      <rects>
        <_>
          4 5 12 2 -1.</_>
        <_>
          8 5 4 2 3.</_></rects>
      <tilted>0</tilted></_>
    <_>
      <rects>
        <_>
          4 7 9 1 -1.</_>
        <_>
          7 7 3 1 3.</_></rects>
      <tilted>0</tilted></_>
    <_>
      <rects>
        <_>
          4 12 2 2 -1.</_>
        <_>
          4 12 1 1 2.</_>
        <_>
          5 13 1 1 2.</_></rects>
      <tilted>0</tilted></_>
    <_>
      <rects>
        <_>
          4 12 18 8 -1.</_>
        <_>
          10 12 6 8 3.</_></rects>
      <tilted>0</tilted></_>
    <_>
      <rects>
        <_>
          4 18 3 2 -1.</_>
        <_>
          5 18 1 2 3.</_></rects>
      <tilted>0</tilted></_>
    <_>
      <rects>
        <_>
          5 0 11 21 -1.</_>
        <_>
          5 7 11 7 3.</_></rects>
      <tilted>0</tilted></_>
    <_>
      <rects>
        <_>
          5 0 13 6 -1.</_>
        <_>
          5 3 13 3 2.</_></rects>
      <tilted>0</tilted></_>
    <_>
      <rects>
        <_>
          5 0 15 8 -1.</_>
        <_>
          5 4 15 4 2.</_></rects>
      <tilted>0</tilted></_>
    <_>
      <rects>
        <_>
          5 8 2 2 -1.</_>
        <_>
          5 8 1 1 2.</_>
        <_>
          6 9 1 1 2.</_></rects>
      <tilted>0</tilted></_>
    <_>
      <rects>
        <_>
          5 10 3 7 -1.</_>
        <_>
          6 10 1 7 3.</_></rects>
      <tilted>0</tilted></_>
    <_>
      <rects>
        <_>
          5 12 2 9 -1.</_>
        <_>
          5 15 2 3 3.</_></rects>
      <tilted>0</tilted></_>
    <_>
      <rects>
        <_>
          5 13 3 1 -1.</_>
        <_>
          6 13 1 1 3.</_></rects>
      <tilted>0</tilted></_>
    <_>
      <rects>
        <_>
          5 13 4 2 -1.</_>
        <_>
          5 13 2 1 2.</_>
        <_>
          7 14 2 1 2.</_></rects>
      <tilted>0</tilted></_>
    <_>
      <rects>
        <_>
          5 16 18 2 -1.</_>
        <_>
          11 16 6 2 3.</_></rects>
      <tilted>0</tilted></_>
    <_>
      <rects>
        <_>
          5 16 18 8 -1.</_>
        <_>
          11 16 6 8 3.</_></rects>
      <tilted>0</tilted></_>
    <_>
      <rects>
        <_>
          5 22 4 2 -1.</_>
        <_>
          5 22 2 1 2.</_>
        <_>
          7 23 2 1 2.</_></rects>
      <tilted>0</tilted></_>
    <_>
      <rects>
        <_>
          6 0 10 2 -1.</_>
        <_>
          6 0 5 1 2.</_>
        <_>
          11 1 5 1 2.</_></rects>
      <tilted>0</tilted></_>
    <_>
      <rects>
        <_>
          6 3 9 21 -1.</_>
        <_>
          9 3 3 21 3.</_></rects>
      <tilted>0</tilted></_>
    <_>
      <rects>
        <_>
          6 5 1 15 -1.</_>
        <_>
          6 10 1 5 3.</_></rects>
      <tilted>0</tilted></_>
    <_>
      <rects>
        <_>
          6 7 9 5 -1.</_>
        <_>
          9 7 3 5 3.</_></rects>
      <tilted>0</tilted></_>
    <_>
      <rects>
        <_>
          6 10 10 14 -1.</_>
        <_>
          11 10 5 14 2.</_></rects>
      <tilted>0</tilted></_>
    <_>
      <rects>
        <_>
          6 15 9 1 -1.</_>
        <_>
          9 15 3 1 3.</_></rects>
      <tilted>0</tilted></_>
    <_>
      <rects>
        <_>
          6 20 5 2 -1.</_>
        <_>
          6 21 5 1 2.</_></rects>
      <tilted>0</tilted></_>
    <_>
      <rects>
        <_>
          7 2 10 6 -1.</_>
        <_>
          7 4 10 2 3.</_></rects>
      <tilted>0</tilted></_>
    <_>
      <rects>
        <_>
          7 3 3 1 -1.</_>
        <_>
          8 3 1 1 3.</_></rects>
      <tilted>0</tilted></_>
    <_>
      <rects>
        <_>
          7 4 6 2 -1.</_>
        <_>
          7 4 3 1 2.</_>
        <_>
          10 5 3 1 2.</_></rects>
      <tilted>0</tilted></_>
    <_>
      <rects>
        <_>
          7 6 3 10 -1.</_>
        <_>
          7 11 3 5 2.</_></rects>
      <tilted>0</tilted></_>
    <_>
      <rects>
        <_>
          7 17 3 1 -1.</_>
        <_>
          8 17 1 1 3.</_></rects>
      <tilted>0</tilted></_>
    <_>
      <rects>
        <_>
          8 0 13 9 -1.</_>
        <_>
          8 3 13 3 3.</_></rects>
      <tilted>0</tilted></_>
    <_>
      <rects>
        <_>
          8 2 1 20 -1.</_>
        <_>
          8 12 1 10 2.</_></rects>
      <tilted>0</tilted></_>
    <_>
      <rects>
        <_>
          8 8 15 11 -1.</_>
        <_>
          13 8 5 11 3.</_></rects>
      <tilted>0</tilted></_>
    <_>
      <rects>
        <_>
          8 10 14 3 -1.</_>
        <_>
          8 11 14 1 3.</_></rects>
      <tilted>0</tilted></_>
    <_>
      <rects>
        <_>
          8 13 3 1 -1.</_>
        <_>
          9 13 1 1 3.</_></rects>
      <tilted>0</tilted></_>
    <_>
      <rects>
        <_>
          8 18 15 6 -1.</_>
        <_>
          8 21 15 3 2.</_></rects>
      <tilted>0</tilted></_>
    <_>
      <rects>
        <_>
          8 20 13 2 -1.</_>
        <_>
          8 21 13 1 2.</_></rects>
      <tilted>0</tilted></_>
    <_>
      <rects>
        <_>
          9 13 5 3 -1.</_>
        <_>
          9 14 5 1 3.</_></rects>
      <tilted>0</tilted></_>
    <_>
      <rects>
        <_>
          9 14 6 1 -1.</_>
        <_>
          11 14 2 1 3.</_></rects>
      <tilted>0</tilted></_>
    <_>
      <rects>
        <_>
          10 10 2 2 -1.</_>
        <_>
          10 10 1 1 2.</_>
        <_>
          11 11 1 1 2.</_></rects>
      <tilted>0</tilted></_>
    <_>
      <rects>
        <_>
          10 11 3 2 -1.</_>
        <_>
          11 11 1 2 3.</_></rects>
      <tilted>0</tilted></_>
    <_>
      <rects>
        <_>
          10 15 2 8 -1.</_>
        <_>
          11 15 1 8 2.</_></rects>
      <tilted>0</tilted></_>
    <_>
      <rects>
        <_>
          10 15 3 4 -1.</_>
        <_>
          10 17 3 2 2.</_></rects>
      <tilted>0</tilted></_>
    <_>
      <rects>
        <_>
          10 16 2 3 -1.</_>
        <_>
          10 17 2 1 3.</_></rects>
      <tilted>0</tilted></_>
    <_>
      <rects>
        <_>
          10 19 3 3 -1.</_>
        <_>
          11 19 1 3 3.</_></rects>
      <tilted>0</tilted></_>
    <_>
      <rects>
        <_>
          11 1 8 9 -1.</_>
        <_>
          11 4 8 3 3.</_></rects>
      <tilted>0</tilted></_>
    <_>
      <rects>
        <_>
          11 3 3 2 -1.</_>
        <_>
          12 3 1 2 3.</_></rects>
      <tilted>0</tilted></_>
    <_>
      <rects>
        <_>
          11 13 9 1 -1.</_>
        <_>
          14 13 3 1 3.</_></rects>
      <tilted>0</tilted></_>
    <_>
      <rects>
        <_>
          12 0 11 2 -1.</_>
        <_>
          12 1 11 1 2.</_></rects>
      <tilted>0</tilted></_>
    <_>
      <rects>
        <_>
          12 1 6 15 -1.</_>
        <_>
          15 1 3 15 2.</_></rects>
      <tilted>0</tilted></_>
    <_>
      <rects>
        <_>
          12 1 7 4 -1.</_>
        <_>
          12 3 7 2 2.</_></rects>
      <tilted>0</tilted></_>
    <_>
      <rects>
        <_>
          12 2 12 20 -1.</_>
        <_>
          18 2 6 20 2.</_></rects>
      <tilted>0</tilted></_>
    <_>
      <rects>
        <_>
          12 7 1 6 -1.</_>
        <_>
          12 9 1 2 3.</_></rects>
      <tilted>0</tilted></_>
    <_>
      <rects>
        <_>
          12 12 2 2 -1.</_>
        <_>
          12 12 1 1 2.</_>
        <_>
          13 13 1 1 2.</_></rects>
      <tilted>0</tilted></_>
    <_>
      <rects>
        <_>
          12 13 12 3 -1.</_>
        <_>
          18 13 6 3 2.</_></rects>
      <tilted>0</tilted></_>
    <_>
      <rects>
        <_>
          12 15 1 6 -1.</_>
        <_>
          12 17 1 2 3.</_></rects>
      <tilted>0</tilted></_>
    <_>
      <rects>
        <_>
          13 0 2 18 -1.</_>
        <_>
          13 6 2 6 3.</_></rects>
      <tilted>0</tilted></_>
    <_>
      <rects>
        <_>
          13 7 3 10 -1.</_>
        <_>
          14 7 1 10 3.</_></rects>
      <tilted>0</tilted></_>
    <_>
      <rects>
        <_>
          13 9 3 7 -1.</_>
        <_>
          14 9 1 7 3.</_></rects>
      <tilted>0</tilted></_>
    <_>
      <rects>
        <_>
          13 10 2 2 -1.</_>
        <_>
          13 10 1 1 2.</_>
        <_>
          14 11 1 1 2.</_></rects>
      <tilted>0</tilted></_>
    <_>
      <rects>
        <_>
          13 12 3 1 -1.</_>
        <_>
          14 12 1 1 3.</_></rects>
      <tilted>0</tilted></_>
    <_>
      <rects>
        <_>
          13 12 3 9 -1.</_>
        <_>
          14 12 1 9 3.</_></rects>
      <tilted>0</tilted></_>
    <_>
      <rects>
        <_>
          13 21 10 2 -1.</_>
        <_>
          13 21 5 1 2.</_>
        <_>
          18 22 5 1 2.</_></rects>
      <tilted>0</tilted></_>
    <_>
      <rects>
        <_>
          13 23 9 1 -1.</_>
        <_>
          16 23 3 1 3.</_></rects>
      <tilted>0</tilted></_>
    <_>
      <rects>
        <_>
          14 4 2 2 -1.</_>
        <_>
          14 4 1 1 2.</_>
        <_>
          15 5 1 1 2.</_></rects>
      <tilted>0</tilted></_>
    <_>
      <rects>
        <_>
          14 16 4 3 -1.</_>
        <_>
          16 16 2 3 2.</_></rects>
      <tilted>0</tilted></_>
    <_>
      <rects>
        <_>
          14 17 4 7 -1.</_>
        <_>
          16 17 2 7 2.</_></rects>
      <tilted>0</tilted></_>
    <_>
      <rects>
        <_>
          14 20 1 3 -1.</_>
        <_>
          14 21 1 1 3.</_></rects>
      <tilted>0</tilted></_>
    <_>
      <rects>
        <_>
          14 20 2 2 -1.</_>
        <_>
          14 20 1 1 2.</_>
        <_>
          15 21 1 1 2.</_></rects>
      <tilted>0</tilted></_>
    <_>
      <rects>
        <_>
          15 3 4 6 -1.</_>
        <_>
          17 3 2 6 2.</_></rects>
      <tilted>0</tilted></_>
    <_>
      <rects>
        <_>
          15 11 6 12 -1.</_>
        <_>
          18 11 3 12 2.</_></rects>
      <tilted>0</tilted></_>
    <_>
      <rects>
        <_>
          15 12 2 2 -1.</_>
        <_>
          15 12 1 1 2.</_>
        <_>
          16 13 1 1 2.</_></rects>
      <tilted>0</tilted></_>
    <_>
      <rects>
        <_>
          15 20 2 2 -1.</_>
        <_>
          15 20 1 1 2.</_>
        <_>
          16 21 1 1 2.</_></rects>
      <tilted>0</tilted></_>
    <_>
      <rects>
        <_>
          16 5 3 4 -1.</_>
        <_>
          16 7 3 2 2.</_></rects>
      <tilted>0</tilted></_>
    <_>
      <rects>
        <_>
          16 7 3 1 -1.</_>
        <_>
          17 7 1 1 3.</_></rects>
      <tilted>0</tilted></_>
    <_>
      <rects>
        <_>
          16 7 4 13 -1.</_>
        <_>
          18 7 2 13 2.</_></rects>
      <tilted>0</tilted></_>
    <_>
      <rects>
        <_>
          16 11 2 6 -1.</_>
        <_>
          17 11 1 6 2.</_></rects>
      <tilted>0</tilted></_>
    <_>
      <rects>
        <_>
          16 18 2 2 -1.</_>
        <_>
          16 19 2 1 2.</_></rects>
      <tilted>0</tilted></_>
    <_>
      <rects>
        <_>
          16 19 6 2 -1.</_>
        <_>
          16 20 6 1 2.</_></rects>
      <tilted>0</tilted></_>
    <_>
      <rects>
        <_>
          17 0 6 23 -1.</_>
        <_>
          20 0 3 23 2.</_></rects>
      <tilted>0</tilted></_>
    <_>
      <rects>
        <_>
          17 2 2 3 -1.</_>
        <_>
          17 3 2 1 3.</_></rects>
      <tilted>0</tilted></_>
    <_>
      <rects>
        <_>
          17 10 3 2 -1.</_>
        <_>
          18 10 1 2 3.</_></rects>
      <tilted>0</tilted></_>
    <_>
      <rects>
        <_>
          17 11 5 2 -1.</_>
        <_>
          17 12 5 1 2.</_></rects>
      <tilted>0</tilted></_>
    <_>
      <rects>
        <_>
          17 12 2 2 -1.</_>
        <_>
          17 12 1 1 2.</_>
        <_>
          18 13 1 1 2.</_></rects>
      <tilted>0</tilted></_>
    <_>
      <rects>
        <_>
          17 19 3 3 -1.</_>
        <_>
          17 20 3 1 3.</_></rects>
      <tilted>0</tilted></_>
    <_>
      <rects>
        <_>
          18 0 6 6 -1.</_>
        <_>
          21 0 3 6 2.</_></rects>
      <tilted>0</tilted></_>
    <_>
      <rects>
        <_>
          18 2 3 2 -1.</_>
        <_>
          19 2 1 2 3.</_></rects>
      <tilted>0</tilted></_>
    <_>
      <rects>
        <_>
          18 11 2 2 -1.</_>
        <_>
          18 12 2 1 2.</_></rects>
      <tilted>0</tilted></_>
    <_>
      <rects>
        <_>
          18 15 3 1 -1.</_>
        <_>
          19 15 1 1 3.</_></rects>
      <tilted>0</tilted></_>
    <_>
      <rects>
        <_>
          18 16 6 3 -1.</_>
        <_>
          20 16 2 3 3.</_></rects>
      <tilted>0</tilted></_>
    <_>
      <rects>
        <_>
          18 21 4 2 -1.</_>
        <_>
          18 21 2 1 2.</_>
        <_>
          20 22 2 1 2.</_></rects>
      <tilted>0</tilted></_>
    <_>
      <rects>
        <_>
          19 0 4 1 -1.</_>
        <_>
          21 0 2 1 2.</_></rects>
      <tilted>0</tilted></_>
    <_>
      <rects>
        <_>
          19 10 4 7 -1.</_>
        <_>
          21 10 2 7 2.</_></rects>
      <tilted>0</tilted></_>
    <_>
      <rects>
        <_>
          19 15 2 9 -1.</_>
        <_>
          19 18 2 3 3.</_></rects>
      <tilted>0</tilted></_>
    <_>
      <rects>
        <_>
          20 0 4 22 -1.</_>
        <_>
          22 0 2 22 2.</_></rects>
      <tilted>0</tilted></_>
    <_>
      <rects>
        <_>
          20 3 4 20 -1.</_>
        <_>
          20 3 2 10 2.</_>
        <_>
          22 13 2 10 2.</_></rects>
      <tilted>0</tilted></_>
    <_>
      <rects>
        <_>
          20 4 4 16 -1.</_>
        <_>
          22 4 2 16 2.</_></rects>
      <tilted>0</tilted></_>
    <_>
      <rects>
        <_>
          20 14 2 3 -1.</_>
        <_>
          21 14 1 3 2.</_></rects>
      <tilted>0</tilted></_>
    <_>
      <rects>
        <_>
          21 0 3 8 -1.</_>
        <_>
          22 0 1 8 3.</_></rects>
      <tilted>0</tilted></_>
    <_>
      <rects>
        <_>
          21 2 3 6 -1.</_>
        <_>
          21 4 3 2 3.</_></rects>
      <tilted>0</tilted></_>
    <_>
      <rects>
        <_>
          21 7 3 14 -1.</_>
        <_>
          22 7 1 14 3.</_></rects>
      <tilted>0</tilted></_>
    <_>
      <rects>
        <_>
          21 12 2 3 -1.</_>
        <_>
          21 13 2 1 3.</_></rects>
      <tilted>0</tilted></_>
    <_>
      <rects>
        <_>
          22 2 2 2 -1.</_>
        <_>
          22 2 1 1 2.</_>
        <_>
          23 3 1 1 2.</_></rects>
      <tilted>0</tilted></_>
    <_>
      <rects>
        <_>
          22 3 2 2 -1.</_>
        <_>
          22 3 1 1 2.</_>
        <_>
          23 4 1 1 2.</_></rects>
      <tilted>0</tilted></_>
    <_>
      <rects>
        <_>
          22 12 2 5 -1.</_>
        <_>
          23 12 1 5 2.</_></rects>
      <tilted>0</tilted></_>
    <_>
      <rects>
        <_>
          22 22 2 2 -1.</_>
        <_>
          22 23 2 1 2.</_></rects>
      <tilted>0</tilted></_>
    <_>
      <rects>
        <_>
          23 9 1 6 -1.</_>
        <_>
          23 11 1 2 3.</_></rects>
      <tilted>0</tilted></_>
    <_>
      <rects>
        <_>
          23 13 1 10 -1.</_>
        <_>
          23 18 1 5 2.</_></rects>
      <tilted>0</tilted></_></features></cascade>
</opencv_storage>
